
#ifndef __MODEL_PARAMETERS_H__
#define __MODEL_PARAMETERS_H__

double model_0_weight[] = {-1.2474838, 0.052209556, -0.01201552, -0.9288388};
double model_1_weight[] = {0.43834773, 0.4433145};
double model_1_bias[] = {-0.0105251195, -0.010193009};
double model_1_running_mean[] = {-18.805677, -16.229742};
double model_1_running_var[] = {4886832.5, 2933147.5};
double output_weight[] = {-0.30333927, -0.12783363, -0.15988407, -0.10274608, -0.017810544, -0.16655493, -0.13140461, -0.19255236, -0.14399135, -0.07914228, -0.18615271, -0.22353649, -0.19396242, -0.11757833, -0.19722365, -0.13289493, -0.16834867, -0.015414206, -0.1810638, -0.19599353, -0.10089074, -0.0854465, -0.023740828, -0.17940603, -0.161834, -0.0010049792, -0.09546746, -0.047740214, -0.20512328, -0.10143011, -0.120432824, -0.023366483, -0.09623635, -0.045021486, -0.20993322, 0.021087985, 0.036145106, -0.083433285, -0.1821593, -0.0049118698, 0.055265963, -0.059603427, 0.058156107, 0.009016269, -0.005382713, -0.15684345, -0.03594862, -0.073176734, -0.07086963, -0.038180906, 0.04333682, -0.10303219, 0.02361963, 0.044917673, -0.09762004, -0.10695417, -0.08527924, 0.015574684, -0.17131324, -0.11890349, 0.09791792, -0.03232808, 0.06663373, 0.057837892, -0.029487062, 0.007948739, 0.023454519, 0.0024357284, -0.0077131065, -0.16153343, 0.06110055, -0.114670314, -0.1089641, 0.014444025, -0.09317965, -0.048605416, -0.040139303, 0.00040099374, -0.11210886, -0.0491118, 0.09484376, -0.07367423, 0.06511696, -0.109787375, 0.031797297, -0.0019071494, -0.076583296, 0.005757995, -0.034383394, -0.05958553, -0.138896, -0.042385094, -0.013938864, -0.08332665, -0.1476209, -0.078729995, 0.08452017, -0.04997378, -0.1523138, -0.096232906, -0.02398933, -0.040821075, -0.09089527, -0.06311598, -0.17072289, -0.13519178, -0.11895874, -0.11181505, -0.06861828, -0.2092273, -0.026171356, -0.09678069, -0.08587375, 0.012569785, -0.13778774, -0.09335306, -0.107731156, -0.0997188, -0.18705419, -0.08624265, -0.3389719, -0.058236755, -0.13110358, -0.13097374, -0.13061789, -0.09446399, -0.0695606, -0.03537828, -0.23365237, -0.10628739, -0.1667621, -0.20772164, -0.18089987, -0.1293554, -0.22163755, -0.26080447, -0.21001235, -0.18361686, -0.15563296, -0.3279779, -0.10470979, -0.07719969, -0.09995149, -0.19851686, -0.020447899, -0.15547797, -0.21346126, -0.15305685, -0.20150475, -0.057499565, -0.16082026, -0.14931951, -0.06536437, -0.18427472, -0.12024837, 0.059972502, -0.09869364, -0.056022134, -0.06919005, -0.017476244, -0.041954257, -0.041067924, -0.013991524, -0.081313625, -0.057681683, 0.0005981337, 0.023164924, 0.05964898, -0.02904316, -0.08552613, -0.020418629, -0.0880216, 0.041387513, -0.02177684, 0.0768023, -0.017523918, 0.02716258, -0.017901627, 0.016779345, -0.042444568, -0.0682808, -0.10498073, -0.02570574, -0.05863974, -0.09096702, 0.062233176, -0.0060548307, -0.06805759, -0.07390229, -0.045397706, -0.0073003485, -0.09910683, 0.13236292, 0.03981736, -0.15472782, -0.07773829, -0.039420247, -0.033431992, -0.06485573, -0.058684517, -0.061088372, -0.112527415, -0.011724929, -0.12522238, -0.044713266, -0.0773575, -0.12643442, -0.006364186, -0.097191274, -0.018832244, -0.09794652, 0.0013812033, -0.09808048, -0.11330861, -0.124574624, 0.024550192, -0.14457627, -0.109625064, -0.1004114, -0.057267517, -0.06957943, -0.0674705, -0.07943728, -0.18047619, -0.12558843, 0.008788421, -0.09587765, -0.009110586, -0.22656092, -0.12073334, -0.02758918, -0.26446837, -0.05285284, 0.03200745, -0.103206955, -0.057340883, -0.037625052, -0.16521071, -0.057796445, -0.13271995, 0.27599648, 0.085557446, 0.14009386, 0.026665024, 0.075026035, 0.13361095, 0.19565757, 0.15168919, 0.06778332, 0.09111339, 0.18101725, 0.22218207, 0.28987002, 0.1210152, 0.14988348, 0.23279858, 0.117962636, 0.10327278, 0.23996703, 0.11108783, 0.15216775, 0.20869234, 0.055094592, 0.14922173, 0.17156667, 0.09793286, 0.07696429, -0.050842468, 0.09702991, 0.0041535236, 0.19745624, 0.094752856, 0.09250035, 0.091803744, 0.1551887, 0.10342689, 0.014597648, 0.06258261, 0.16810909, 0.0011626414, -0.006677734, 0.07439848, -0.023438409, 0.024760997, 0.03811972, 0.20729332, 0.016225247, 0.0014570346, 0.013616945, 0.018466916, 0.009197291, 0.08278523, -0.037915435, -0.096072756, 0.14017758, 0.040454783, 0.022289164, 0.08362268, 0.12320449, 0.103344254, -0.025309717, 0.09004736, -0.078513704, 0.025811765, 0.06380878, -0.063018784, -0.02787395, 0.06763663, 0.0050852764, 0.04640452, 0.01874065, 0.1029985, 0.11602701, 0.03643361, 0.0610073, 0.06592847, 0.02290318, 0.0110005485, 0.054241575, 0.111341685, -0.043918982, 0.09523806, -0.10465119, 0.08869437, -0.05951553, -0.03290026, -0.024054123, 0.077018835, -0.0068527833, 0.057993297, 0.13998434, -0.030056924, 0.020846322, 0.046076596, 0.13170253, 0.01933259, -0.065661296, 0.008978231, 0.19106744, 0.046151485, -0.04131144, 0.02361129, 0.1770872, -0.022134624, 0.087512106, 0.22530387, 0.027642323, 0.08396744, 0.018250952, 0.14928539, 0.028902981, 0.13999298, 0.071562596, 0.085579254, 0.18088832, 0.18610233, 0.10140906, 0.19957365, 0.18686041, 0.030166298, 0.24796723, 0.14694864, 0.10889235, 0.04684593, 0.10729798, 0.11685037, 0.10378498, 0.07115219, 0.19636042, 0.032428578, 0.1704902, 0.18820763, 0.13301922, 0.10280394, 0.2472184, 0.24530576, 0.20706272, 0.22690715, 0.16210087, 0.20564348, 0.18047991, 0.10476362, 0.12524104, 0.24914004, 0.014997425, 0.21894816, 0.17526525, 0.17307602, 0.2912412, 0.13423513, 0.17038304, 0.13455117, 0.12305172, 0.17033228, 0.022386283, -0.04044148, 0.10975115, 0.0047175987, 0.0013880654, 0.011215529, 0.0042717247, -0.027058214, -0.027536549, 0.0067467834, 0.018969547, 0.058696166, -0.08956522, -0.02559705, 0.07666638, 0.03257072, 0.050245598, 0.14631616, 0.03640486, 0.094790995, -0.06810915, -0.084202975, 0.041080598, 0.0713145, -0.08372371, 0.13867667, 0.06950818, 0.0021324002, 0.027045814, 0.072973564, 0.10084072, -0.12821816, -0.056792516, 0.015689781, 0.009733473, 0.08917805, -0.037821077, 0.0924525, -0.036732733, 0.033034652, 0.11939956, 0.12437009, -0.017036652, 0.032886934, 0.093034014, 0.14682902, 0.102060795, 0.123697504, 0.037715115, 0.12758434, -0.01795176, 0.07157016, 0.14537679, 0.02201486, 0.009572762, 0.0726792, 0.1543267, 0.07456994, 0.1010664, 0.14832352, 0.10824766, -0.010677838, 0.068877175, 0.103419766, 0.16561948, -0.019108335, 0.07215719, 0.0065017967, 0.06237953, 0.18596709, 0.10023964, 0.08943164, 0.0029282751, 0.048575357, 0.1356619, 0.13113716, 0.0047721113, 0.1777943, 0.025290167, 0.050625905, 0.07366273, 0.06840308, 0.01517681, 0.16666415, 0.10647493, 0.13769254};
double output_bias[] = {1.2905513, -1.3703088};

#endif
